{
  "type": "LSTM",
  "options": {
    "inputSize": 31,
    "inputRange": 31,
    "hiddenLayers": [
      20,
      20
    ],
    "outputSize": 31,
    "decayRate": 0.999,
    "smoothEps": 1e-8,
    "regc": 0.000001,
    "clipval": 5,
    "maxPredictionLength": 100,
    "dataFormatter": {
      "values": [
        "buy me a laptop",
        "code",
        "computer",
        "drive",
        "hardware",
        "i broke my pc",
        "i found some bugs in the code",
        "i love computers",
        "i love to play games",
        "i need a new power supply",
        "i swapped the memory",
        "i tested the code",
        "it needs more memory",
        "my unit test failed",
        "power supply",
        "program",
        "programming",
        "software",
        "the drive has a 2TB capacity",
        "tried the program, but it was buggy",
        "unit-tests"
      ],
      "indexTable": {
        "2": 23,
        "b": 0,
        "u": 1,
        "y": 2,
        " ": 3,
        "m": 4,
        "e": 5,
        "a": 6,
        "l": 7,
        "p": 8,
        "t": 9,
        "o": 10,
        "c": 11,
        "d": 12,
        "r": 13,
        "i": 14,
        "v": 15,
        "h": 16,
        "w": 17,
        "k": 18,
        "f": 19,
        "n": 20,
        "s": 21,
        "g": 22,
        "T": 24,
        "B": 25,
        ",": 26,
        "-": 27,
        "stop-input": 28,
        "start-output": 29,
        "unrecognized": 30
      },
      "characterTable": {
        "0": "b",
        "1": "u",
        "2": "y",
        "3": " ",
        "4": "m",
        "5": "e",
        "6": "a",
        "7": "l",
        "8": "p",
        "9": "t",
        "10": "o",
        "11": "c",
        "12": "d",
        "13": "r",
        "14": "i",
        "15": "v",
        "16": "h",
        "17": "w",
        "18": "k",
        "19": "f",
        "20": "n",
        "21": "s",
        "22": "g",
        "23": "2",
        "24": "T",
        "25": "B",
        "26": ",",
        "27": "-",
        "28": null,
        "29": null,
        "30": null
      },
      "characters": [
        "b",
        "u",
        "y",
        " ",
        "m",
        "e",
        "a",
        "l",
        "p",
        "t",
        "o",
        "c",
        "d",
        "r",
        "i",
        "v",
        "h",
        "w",
        "k",
        "f",
        "n",
        "s",
        "g",
        "2",
        "T",
        "B",
        ",",
        "-",
        "stop-input",
        "start-output",
        "unrecognized"
      ],
      "specialIndexes": [
        28,
        29,
        30
      ]
    }
  },
  "input": {
    "rows": 32,
    "columns": 31,
    "weights": {
      "0": 1.8481993675231934,
      "1": 0.180576354265213,
      "2": -0.2537745535373688,
      "3": -0.9751837253570557,
      "4": 0.727860689163208,
      "5": 0.05986429750919342,
      "6": 1.4939701557159424,
      "7": -0.8398691415786743,
      "8": -1.3502997159957886,
      "9": 1.340051531791687,
      "10": 0.6422823071479797,
      "11": -1.2225592136383057,
      "12": 0.18653222918510437,
      "13": 1.8743598461151123,
      "14": 0.8787108063697815,
      "15": 0.7199244499206543,
      "16": 1.204750418663025,
      "17": 0.20766328275203705,
      "18": 0.94476717710495,
      "19": -2.600217580795288,
      "20": -1.9506391286849976,
      "21": -1.9576349258422852,
      "22": 3.9063854217529297,
      "23": 0.10040578246116638,
      "24": -3.2846503257751465,
      "25": 0.9797170758247375,
      "26": -0.13523857295513153,
      "27": -1.2630170583724976,
      "28": 0.38528889417648315,
      "29": 1.2430980205535889,
      "30": 0.5593163967132568,
      "31": -4.1223835945129395,
      "32": -7.9216389656066895,
      "33": -0.6999355554580688,
      "34": 1.2093662023544312,
      "35": -0.4908812344074249,
      "36": 2.4018914699554443,
      "37": -2.477515935897827,
      "38": -7.3357672691345215,
      "39": 1.709710955619812,
      "40": -0.8771080374717712,
      "41": 1.2118244171142578,
      "42": -0.029009001329541206,
      "43": -1.4362152814865112,
      "44": 2.0178840160369873,
      "45": -4.650080680847168,
      "46": 5.699848175048828,
      "47": 1.3335793018341064,
      "48": 4.668338298797607,
      "49": 3.2125983238220215,
      "50": 2.1635665893554688,
      "51": -5.142045974731445,
      "52": 4.940939426422119,
      "53": -1.7865949869155884,
      "54": 5.416333198547363,
      "55": -4.091536521911621,
      "56": -1.4250367879867554,
      "57": 4.550912380218506,
      "58": 1.8580296039581299,
      "59": -6.1778717041015625,
      "60": -1.5199781656265259,
      "61": -0.15534505248069763,
      "62": -2.016505718231201,
      "63": -0.49007683992385864,
      "64": -1.6832104921340942,
      "65": 1.0012898445129395,
      "66": 4.366885662078857,
      "67": 0.29522955417633057,
      "68": 2.7746899127960205,
      "69": -4.3844709396362305,
      "70": 2.9412965774536133,
      "71": -3.352344512939453,
      "72": -0.573466420173645,
      "73": 1.987820029258728,
      "74": -1.5995142459869385,
      "75": -1.758933663368225,
      "76": -0.6149690747261047,
      "77": -2.127445936203003,
      "78": -2.030534029006958,
      "79": -0.22644242644309998,
      "80": 0.19276462495326996,
      "81": 2.5020697116851807,
      "82": -6.74830436706543,
      "83": -0.09367648512125015,
      "84": 1.5852497816085815,
      "85": 0.8605484366416931,
      "86": -3.2252769470214844,
      "87": -1.1069360971450806,
      "88": -0.9977978467941284,
      "89": -1.0804673433303833,
      "90": -1.444458246231079,
      "91": -4.721014976501465,
      "92": -0.3230055868625641,
      "93": -0.6083075404167175,
      "94": 0.670089840888977,
      "95": -1.2221176624298096,
      "96": 0.6175388097763062,
      "97": 0.8613347411155701,
      "98": 2.7960798740386963,
      "99": 2.000070333480835,
      "100": -0.40575212240219116,
      "101": 0.7685564756393433,
      "102": -1.2390345335006714,
      "103": -1.7275214195251465,
      "104": 0.9501168131828308,
      "105": 0.07224152237176895,
      "106": -0.201878160238266,
      "107": 0.35656142234802246,
      "108": -2.2073354721069336,
      "109": -4.306040287017822,
      "110": 0.2768269181251526,
      "111": -0.8857287168502808,
      "112": -0.15327836573123932,
      "113": 0.6749554872512817,
      "114": 0.6209247708320618,
      "115": -1.4939481019973755,
      "116": -3.098027467727661,
      "117": 1.5913481712341309,
      "118": -0.15943430364131927,
      "119": -2.143101215362549,
      "120": -0.395674467086792,
      "121": 3.2439098358154297,
      "122": 0.4983522593975067,
      "123": -2.7950258255004883,
      "124": 0.0218299999833107,
      "125": 1.1607738733291626,
      "126": -1.0933542251586914,
      "127": 0.5858662128448486,
      "128": -0.28330036997795105,
      "129": -2.278657913208008,
      "130": -1.3835276365280151,
      "131": -5.934127330780029,
      "132": 0.01897788606584072,
      "133": -0.7206175327301025,
      "134": -1.5109704732894897,
      "135": -0.013962571509182453,
      "136": 0.10707863420248032,
      "137": 0.19865691661834717,
      "138": 0.44388189911842346,
      "139": 0.49451497197151184,
      "140": 0.14246214926242828,
      "141": 2.764599084854126,
      "142": 3.899261951446533,
      "143": 1.8674867153167725,
      "144": -7.482019424438477,
      "145": 0.5252702236175537,
      "146": -2.6107518672943115,
      "147": -2.487504482269287,
      "148": -1.7880913019180298,
      "149": -0.6562716960906982,
      "150": 1.3935068845748901,
      "151": 1.6965274810791016,
      "152": 1.1941429376602173,
      "153": -0.5196055173873901,
      "154": -0.18422357738018036,
      "155": -0.31831124424934387,
      "156": 0.9082404375076294,
      "157": 1.3847384452819824,
      "158": 0.4372597634792328,
      "159": -0.9969765543937683,
      "160": -0.3787306845188141,
      "161": -0.38049420714378357,
      "162": 1.7524124383926392,
      "163": 1.0816385746002197,
      "164": 0.9009403586387634,
      "165": -0.9537166953086853,
      "166": -0.4407493770122528,
      "167": 1.662266731262207,
      "168": 4.149768352508545,
      "169": 3.1608352661132812,
      "170": 1.9696414470672607,
      "171": -0.5946434736251831,
      "172": 0.24996639788150787,
      "173": -2.130703926086426,
      "174": 0.9388111233711243,
      "175": 0.13247080147266388,
      "176": 0.24165114760398865,
      "177": 0.042946700006723404,
      "178": 1.1903575658798218,
      "179": 0.7422773241996765,
      "180": 0.6732722520828247,
      "181": 0.15454897284507751,
      "182": 0.9746301770210266,
      "183": -0.9898975491523743,
      "184": 0.31024423241615295,
      "185": 1.400917410850525,
      "186": -0.05123237520456314,
      "187": 1.622119426727295,
      "188": 0.9445241689682007,
      "189": 0.15110449492931366,
      "190": -0.40903690457344055,
      "191": -0.3056047260761261,
      "192": -1.0801374912261963,
      "193": -0.37314945459365845,
      "194": 1.319307804107666,
      "195": -0.37417998909950256,
      "196": 0.864068865776062,
      "197": -0.20501308143138885,
      "198": 1.7693144083023071,
      "199": 1.3714416027069092,
      "200": 4.866905212402344,
      "201": -0.6014026999473572,
      "202": 0.7556592226028442,
      "203": -0.08978645503520966,
      "204": -0.513011634349823,
      "205": 0.8625566959381104,
      "206": -1.3083010911941528,
      "207": 0.19835053384304047,
      "208": -1.0637638568878174,
      "209": -2.0397393703460693,
      "210": -1.265836238861084,
      "211": 0.2880096733570099,
      "212": -1.6981817483901978,
      "213": -2.2344555854797363,
      "214": 1.530653953552246,
      "215": -0.9392499923706055,
      "216": 0.3281806707382202,
      "217": 0.4493872821331024,
      "218": -0.8604305982589722,
      "219": -1.005190372467041,
      "220": -2.757859468460083,
      "221": 0.1346307098865509,
      "222": 0.18011166155338287,
      "223": 0.3638283312320709,
      "224": -1.9368451833724976,
      "225": 0.877562940120697,
      "226": -1.3059182167053223,
      "227": -0.10447321087121964,
      "228": 0.39075982570648193,
      "229": -1.4966931343078613,
      "230": -0.1751672327518463,
      "231": -2.284670114517212,
      "232": -0.6574732065200806,
      "233": -0.36297526955604553,
      "234": 0.5504293441772461,
      "235": 2.5265257358551025,
      "236": 0.7698543667793274,
      "237": -3.307724714279175,
      "238": 0.023411551490426064,
      "239": -0.2707219421863556,
      "240": 0.018069583922624588,
      "241": -0.021251149475574493,
      "242": -1.5717527866363525,
      "243": 0.024834919720888138,
      "244": 0.33669498562812805,
      "245": -0.10804639756679535,
      "246": -0.235685795545578,
      "247": -0.33167406916618347,
      "248": 4.055475234985352,
      "249": 2.374770164489746,
      "250": 0.46876752376556396,
      "251": 6.328701496124268,
      "252": -0.7428117394447327,
      "253": -1.3816133737564087,
      "254": 0.9145570993423462,
      "255": 2.1562676429748535,
      "256": 0.8188620805740356,
      "257": -4.5600199699401855,
      "258": 1.3617238998413086,
      "259": -1.5267183780670166,
      "260": 2.3105475902557373,
      "261": -5.239937782287598,
      "262": -0.668865442276001,
      "263": -7.614775657653809,
      "264": -1.6435647010803223,
      "265": -6.077426433563232,
      "266": 0.7345095276832581,
      "267": 3.6156086921691895,
      "268": 4.7399001121521,
      "269": 3.0462658405303955,
      "270": -2.439234733581543,
      "271": -7.924660682678223,
      "272": -6.0140380859375,
      "273": -0.7111084461212158,
      "274": -0.35721689462661743,
      "275": -2.16921067237854,
      "276": 7.25071907043457,
      "277": 0.14729826152324677,
      "278": -2.2189066410064697,
      "279": -0.9749634265899658,
      "280": -1.2291282415390015,
      "281": -2.1513636112213135,
      "282": -1.3692110776901245,
      "283": -0.00925786979496479,
      "284": 2.6591901779174805,
      "285": -0.8090779185295105,
      "286": 0.7859767079353333,
      "287": 1.5630097389221191,
      "288": -1.7480394840240479,
      "289": 1.6563571691513062,
      "290": -0.6779037117958069,
      "291": -1.3591516017913818,
      "292": 0.5120028257369995,
      "293": -0.04899461567401886,
      "294": -1.1142455339431763,
      "295": 2.8989834785461426,
      "296": 1.6560533046722412,
      "297": -2.365819215774536,
      "298": -0.334000825881958,
      "299": -2.1910979747772217,
      "300": -1.2569559812545776,
      "301": -3.930217742919922,
      "302": -2.8223092555999756,
      "303": -3.095407485961914,
      "304": -0.8937546610832214,
      "305": -2.6233534812927246,
      "306": 2.0205445289611816,
      "307": 0.008905334398150444,
      "308": 0.32708483934402466,
      "309": -2.4562089443206787,
      "310": 0.6692737936973572,
      "311": -0.9572309851646423,
      "312": -0.6824520230293274,
      "313": 1.5130490064620972,
      "314": -0.11679284274578094,
      "315": -2.589848756790161,
      "316": 0.5467717051506042,
      "317": 1.0028573274612427,
      "318": 2.9684956073760986,
      "319": 1.5786036252975464,
      "320": 0.7111799716949463,
      "321": 1.1798890829086304,
      "322": 3.274646759033203,
      "323": -0.944583535194397,
      "324": 3.666952133178711,
      "325": 0.6405187249183655,
      "326": 1.3312866687774658,
      "327": 0.15444478392601013,
      "328": -2.318385124206543,
      "329": 2.3062570095062256,
      "330": -2.532613515853882,
      "331": -2.0730996131896973,
      "332": -1.9877394437789917,
      "333": -0.8602281212806702,
      "334": -1.2307929992675781,
      "335": 1.389732837677002,
      "336": -1.6565765142440796,
      "337": 0.08923988044261932,
      "338": 0.9222737550735474,
      "339": -2.6924386024475098,
      "340": -1.087202548980713,
      "341": 0.17694932222366333,
      "342": -0.4576895833015442,
      "343": 0.6643447875976562,
      "344": 1.4230515956878662,
      "345": 0.05993387848138809,
      "346": -2.1084249019622803,
      "347": -1.0829213857650757,
      "348": -0.5345978140830994,
      "349": 0.53642338514328,
      "350": 2.4789681434631348,
      "351": 1.6978317499160767,
      "352": -0.9290831685066223,
      "353": -0.040073975920677185,
      "354": -0.251244455575943,
      "355": 0.45011210441589355,
      "356": 2.133089542388916,
      "357": -0.16838403046131134,
      "358": 0.36353641748428345,
      "359": -0.12169165164232254,
      "360": -0.18647104501724243,
      "361": -0.09857100993394852,
      "362": -0.3140754997730255,
      "363": 1.7906403541564941,
      "364": 1.6708101034164429,
      "365": -0.289878249168396,
      "366": 0.14300191402435303,
      "367": 0.48055940866470337,
      "368": -0.17617468535900116,
      "369": -1.6400660276412964,
      "370": 0.9916831254959106,
      "371": 2.2240681648254395,
      "372": 0.8140957355499268,
      "373": 2.1630373001098633,
      "374": 1.041636347770691,
      "375": -10.373291969299316,
      "376": -1.2902581691741943,
      "377": 0.6807246208190918,
      "378": -0.33614516258239746,
      "379": 5.818775177001953,
      "380": 1.0841931104660034,
      "381": 2.102421522140503,
      "382": 2.4786603450775146,
      "383": -2.1670734882354736,
      "384": -5.0346760749816895,
      "385": 6.484856128692627,
      "386": -4.755809783935547,
      "387": 5.224053382873535,
      "388": 2.264904022216797,
      "389": 0.23317180573940277,
      "390": 3.672516107559204,
      "391": -6.337843418121338,
      "392": 2.172872543334961,
      "393": -1.106355905532837,
      "394": 2.0363972187042236,
      "395": 2.1181983947753906,
      "396": -3.3945422172546387,
      "397": -4.794297695159912,
      "398": -1.2390648126602173,
      "399": 3.0198493003845215,
      "400": 0.4099620282649994,
      "401": -3.7916059494018555,
      "402": -0.23750564455986023,
      "403": 0.3481936454772949,
      "404": -0.045088645070791245,
      "405": -1.321403980255127,
      "406": 1.7950916290283203,
      "407": 2.5505526065826416,
      "408": -3.5755786895751953,
      "409": -0.031597476452589035,
      "410": -1.15239417552948,
      "411": 0.8321298360824585,
      "412": -2.0038483142852783,
      "413": 0.7544742822647095,
      "414": 0.33154064416885376,
      "415": 1.8319982290267944,
      "416": -1.8163937330245972,
      "417": 0.8269060850143433,
      "418": -1.3822016716003418,
      "419": -0.29723355174064636,
      "420": -4.144041061401367,
      "421": 2.1069531440734863,
      "422": 0.8383015990257263,
      "423": -0.032907210290431976,
      "424": 0.8715022802352905,
      "425": -2.6053245067596436,
      "426": -1.8212859630584717,
      "427": -0.035131264477968216,
      "428": 1.7550019025802612,
      "429": -0.27168533205986023,
      "430": -1.5497794151306152,
      "431": 1.7025477886199951,
      "432": -1.2798020839691162,
      "433": -2.094470262527466,
      "434": -0.7611925601959229,
      "435": 0.2770056128501892,
      "436": -0.9290996193885803,
      "437": 2.6319708824157715,
      "438": -0.7669038772583008,
      "439": 0.45771944522857666,
      "440": -0.38915327191352844,
      "441": 0.7701561450958252,
      "442": -0.4518582820892334,
      "443": -0.5846430659294128,
      "444": -0.1070137545466423,
      "445": 1.0153659582138062,
      "446": 0.7770149111747742,
      "447": -1.1399898529052734,
      "448": -0.32390302419662476,
      "449": -1.8284671306610107,
      "450": -0.780204176902771,
      "451": -0.531730055809021,
      "452": 0.8234713673591614,
      "453": -1.4181149005889893,
      "454": 0.2274770587682724,
      "455": 0.6754058599472046,
      "456": -0.23259064555168152,
      "457": -3.0096240043640137,
      "458": 0.27136561274528503,
      "459": -0.40380242466926575,
      "460": 0.11924602091312408,
      "461": 0.2666381001472473,
      "462": 3.6015918254852295,
      "463": 0.2506156861782074,
      "464": -0.24559573829174042,
      "465": 2.0839853286743164,
      "466": 1.528408169746399,
      "467": 1.2064236402511597,
      "468": -3.279961347579956,
      "469": -0.6066668033599854,
      "470": -2.0288732051849365,
      "471": -1.7837191820144653,
      "472": -2.7092206478118896,
      "473": -1.3795793056488037,
      "474": 1.5782318115234375,
      "475": 1.783403754234314,
      "476": -1.6174687147140503,
      "477": -0.6851710677146912,
      "478": 4.623867988586426,
      "479": -0.06706532835960388,
      "480": 2.397246837615967,
      "481": 2.7382311820983887,
      "482": -1.783267617225647,
      "483": 3.0026695728302,
      "484": 0.08972035348415375,
      "485": -2.3880245685577393,
      "486": -0.13436174392700195,
      "487": -0.16156749427318573,
      "488": 1.022475004196167,
      "489": -0.3313812017440796,
      "490": 0.15221574902534485,
      "491": 1.4962517023086548,
      "492": -1.0589306354522705,
      "493": 0.8275051712989807,
      "494": 0.020269494503736496,
      "495": 0.17421825230121613,
      "496": -3.8798277378082275,
      "497": 0.3287804424762726,
      "498": -4.365603923797607,
      "499": -3.5645809173583984,
      "500": 1.384713888168335,
      "501": 0.05676313862204552,
      "502": -2.8054888248443604,
      "503": -1.897579312324524,
      "504": -9.218600273132324,
      "505": 3.2795958518981934,
      "506": 4.314539909362793,
      "507": -2.324944496154785,
      "508": 2.5700387954711914,
      "509": 3.9308533668518066,
      "510": -2.8900411128997803,
      "511": 6.724483489990234,
      "512": 3.7169249057769775,
      "513": -6.452449321746826,
      "514": 7.405457496643066,
      "515": -0.8039065003395081,
      "516": 0.8699744343757629,
      "517": -8.005791664123535,
      "518": 0.3742181658744812,
      "519": 1.1266260147094727,
      "520": -8.680946350097656,
      "521": -0.9096237421035767,
      "522": -2.347217559814453,
      "523": -0.1951122134923935,
      "524": 2.844902753829956,
      "525": 10.060511589050293,
      "526": 0.07529684156179428,
      "527": -2.2551608085632324,
      "528": 1.9555273056030273,
      "529": 1.117924451828003,
      "530": -3.0505242347717285,
      "531": 0.30579519271850586,
      "532": 2.1519505977630615,
      "533": 0.5439373850822449,
      "534": 3.861093521118164,
      "535": -1.8593063354492188,
      "536": 0.8413564562797546,
      "537": 0.6633622050285339,
      "538": -0.7606488466262817,
      "539": -0.1305701732635498,
      "540": 0.29165390133857727,
      "541": -1.0978829860687256,
      "542": 2.0072739124298096,
      "543": -0.06738752871751785,
      "544": -0.4087870419025421,
      "545": -3.938117504119873,
      "546": -0.13714051246643066,
      "547": 0.9101872444152832,
      "548": -3.033116579055786,
      "549": 3.8292016983032227,
      "550": 1.6495087146759033,
      "551": 1.4056364297866821,
      "552": -0.001084057497791946,
      "553": -0.26642581820487976,
      "554": 0.40220314264297485,
      "555": -0.38517099618911743,
      "556": 1.3869246244430542,
      "557": 0.6870405673980713,
      "558": -0.9810448884963989,
      "559": 1.4574474096298218,
      "560": 0.800793468952179,
      "561": -0.6673648357391357,
      "562": -0.33680227398872375,
      "563": 1.378204107284546,
      "564": -0.436779648065567,
      "565": 1.7191475629806519,
      "566": -0.24758894741535187,
      "567": 0.374664843082428,
      "568": 0.17065230011940002,
      "569": -1.1201032400131226,
      "570": 0.025790702551603317,
      "571": -0.7582154870033264,
      "572": -0.024837860837578773,
      "573": -0.7209166288375854,
      "574": 0.7626459002494812,
      "575": -0.2843092083930969,
      "576": -0.4829947054386139,
      "577": 0.4264542758464813,
      "578": 2.829111099243164,
      "579": 0.5271758437156677,
      "580": 0.8709006309509277,
      "581": -0.31879910826683044,
      "582": 3.363016128540039,
      "583": 0.1307866871356964,
      "584": -1.0420334339141846,
      "585": -0.2936166524887085,
      "586": 0.38808882236480713,
      "587": -0.2540874779224396,
      "588": -0.020529383793473244,
      "589": 11.285893440246582,
      "590": -1.7486495971679688,
      "591": 3.230329990386963,
      "592": -6.5340800285339355,
      "593": 6.741471290588379,
      "594": -1.2413604259490967,
      "595": 17.25680160522461,
      "596": 2.9569478034973145,
      "597": 2.2041897773742676,
      "598": 4.72589635848999,
      "599": -10.410690307617188,
      "600": -4.001354694366455,
      "601": 8.58829402923584,
      "602": 7.393372058868408,
      "603": 1.7820340394973755,
      "604": 5.345156192779541,
      "605": -4.588967323303223,
      "606": -8.383414268493652,
      "607": -4.782105922698975,
      "608": -2.544175863265991,
      "609": -4.199946403503418,
      "610": 1.4910926818847656,
      "611": 2.3177027702331543,
      "612": 1.4041106700897217,
      "613": -16.701692581176758,
      "614": 2.0574774742126465,
      "615": -4.33759069442749,
      "616": -8.967077255249023,
      "617": -0.47856786847114563,
      "618": -9.051772117614746,
      "619": -3.3693299293518066,
      "620": 1.6182236671447754,
      "621": -0.6873561143875122,
      "622": 1.2976984977722168,
      "623": -2.8015060424804688,
      "624": -0.6592689156532288,
      "625": -1.4820504188537598,
      "626": -2.1372339725494385,
      "627": -0.10431433469057083,
      "628": 1.3844738006591797,
      "629": 2.6923372745513916,
      "630": -1.2467056512832642,
      "631": -1.7095037698745728,
      "632": -0.8930736184120178,
      "633": 0.519237220287323,
      "634": 0.3584189713001251,
      "635": 0.9256739616394043,
      "636": 2.1932685375213623,
      "637": 4.279642105102539,
      "638": -0.9891584515571594,
      "639": 1.6166716814041138,
      "640": -3.1907641887664795,
      "641": -1.1417820453643799,
      "642": 1.0129592418670654,
      "643": 1.286168098449707,
      "644": -1.7448208332061768,
      "645": -0.6611132621765137,
      "646": -1.369248867034912,
      "647": 2.007327079772949,
      "648": -1.4171193838119507,
      "649": -1.1888220310211182,
      "650": 3.3180110454559326,
      "651": -0.3826231360435486,
      "652": 2.5994207859039307,
      "653": 4.926212787628174,
      "654": -1.075476884841919,
      "655": -2.6171178817749023,
      "656": -1.5418548583984375,
      "657": -3.1320040225982666,
      "658": 0.22782287001609802,
      "659": -3.292717695236206,
      "660": 4.812386989593506,
      "661": 2.03653883934021,
      "662": -4.4919939041137695,
      "663": 0.48421430587768555,
      "664": 1.7379626035690308,
      "665": -1.4179127216339111,
      "666": 4.159292697906494,
      "667": 2.0326921939849854,
      "668": 3.115863561630249,
      "669": 2.1028494834899902,
      "670": -0.4228992462158203,
      "671": -0.4635157883167267,
      "672": -0.5363237261772156,
      "673": -1.936721682548523,
      "674": -0.559037983417511,
      "675": -2.643716812133789,
      "676": -1.0283420085906982,
      "677": 4.998445510864258,
      "678": -1.2057409286499023,
      "679": 0.21046721935272217,
      "680": 1.9900083541870117,
      "681": 0.7417623996734619,
      "682": -1.4838920831680298,
      "683": -2.3365731239318848,
      "684": -0.5562019944190979,
      "685": -1.5019588470458984,
      "686": -0.5403068661689758,
      "687": 3.086571216583252,
      "688": 0.6022401452064514,
      "689": 0.382388174533844,
      "690": -1.2949079275131226,
      "691": 0.3235224783420563,
      "692": -1.1213754415512085,
      "693": 0.48241227865219116,
      "694": 0.4965105354785919,
      "695": 1.8254077434539795,
      "696": -1.384720802307129,
      "697": 1.2631206512451172,
      "698": -0.6995999813079834,
      "699": 0.4024040997028351,
      "700": 0.9363352060317993,
      "701": -0.2636784315109253,
      "702": 1.384124517440796,
      "703": -0.029992979019880295,
      "704": 1.8567482233047485,
      "705": 1.699061393737793,
      "706": 0.9685767292976379,
      "707": -0.06482589244842529,
      "708": 1.0890440940856934,
      "709": 2.65427827835083,
      "710": -0.9959613084793091,
      "711": 1.9456486701965332,
      "712": 0.7809557914733887,
      "713": 5.741976261138916,
      "714": -1.827850341796875,
      "715": -3.4440908432006836,
      "716": 0.5434587597846985,
      "717": 5.229118347167969,
      "718": 0.2485363930463791,
      "719": -4.406112194061279,
      "720": -2.708296537399292,
      "721": 0.4012099802494049,
      "722": -5.470095634460449,
      "723": -3.4605274200439453,
      "724": 2.2809760570526123,
      "725": -1.905626654624939,
      "726": -5.420115947723389,
      "727": 1.8001538515090942,
      "728": -0.2528083026409149,
      "729": -0.039646077901124954,
      "730": -6.728635311126709,
      "731": 1.959618330001831,
      "732": 3.0517349243164062,
      "733": 2.038661003112793,
      "734": 3.4890499114990234,
      "735": -0.9017998576164246,
      "736": -0.42067641019821167,
      "737": 0.04711048677563667,
      "738": 2.4789788722991943,
      "739": -3.448638677597046,
      "740": -3.3695762157440186,
      "741": 0.02179529145359993,
      "742": 1.4048255681991577,
      "743": -1.384877324104309,
      "744": -7.300276279449463,
      "745": -8.424825668334961,
      "746": -0.05889727547764778,
      "747": -2.884171724319458,
      "748": -1.6859514713287354,
      "749": 4.658631801605225,
      "750": 6.911957263946533,
      "751": -4.125507831573486,
      "752": 1.9997785091400146,
      "753": 5.937564373016357,
      "754": -6.809717178344727,
      "755": 1.1140494346618652,
      "756": -0.1804049164056778,
      "757": -6.007601261138916,
      "758": 2.6439273357391357,
      "759": -7.10851526260376,
      "760": -11.684189796447754,
      "761": 9.88951301574707,
      "762": -7.532511234283447,
      "763": 3.8610990047454834,
      "764": -4.358206272125244,
      "765": -4.5266289710998535,
      "766": -12.487189292907715,
      "767": -14.337855339050293,
      "768": 2.1974685192108154,
      "769": -0.3607208728790283,
      "770": -2.692146062850952,
      "771": 4.761711120605469,
      "772": 6.107741832733154,
      "773": -3.0432794094085693,
      "774": -11.68684196472168,
      "775": -3.2860515117645264,
      "776": 1.6525999307632446,
      "777": 1.0081219673156738,
      "778": -1.6150747537612915,
      "779": 3.448079824447632,
      "780": 2.8351097106933594,
      "781": -3.2722222805023193,
      "782": 8.634780883789062,
      "783": -13.062475204467773,
      "784": -2.0273241996765137,
      "785": -2.975682258605957,
      "786": 2.418149948120117,
      "787": 0.882490336894989,
      "788": 2.7028393745422363,
      "789": -3.1390328407287598,
      "790": -6.925108909606934,
      "791": -1.0033446550369263,
      "792": -5.65983772277832,
      "793": -0.3219330310821533,
      "794": -2.0231740474700928,
      "795": 11.12983226776123,
      "796": -5.377460479736328,
      "797": -13.262489318847656,
      "798": -12.96153736114502,
      "799": 5.766971588134766,
      "800": -8.386453628540039,
      "801": 3.724869966506958,
      "802": -5.842485427856445,
      "803": 19.575876235961914,
      "804": 7.154732704162598,
      "805": -14.440654754638672,
      "806": 10.331865310668945,
      "807": 3.8622548580169678,
      "808": -5.378799915313721,
      "809": 4.821004867553711,
      "810": 0.8568741083145142,
      "811": -5.105620384216309,
      "812": 4.275593280792236,
      "813": 3.573472738265991,
      "814": 8.315786361694336,
      "815": -14.765353202819824,
      "816": -6.572534561157227,
      "817": 9.408529281616211,
      "818": 2.601835250854492,
      "819": -1.6207729578018188,
      "820": 5.5640130043029785,
      "821": -6.944599628448486,
      "822": -13.265713691711426,
      "823": 2.658020257949829,
      "824": 3.868379592895508,
      "825": 5.965774059295654,
      "826": -3.191408395767212,
      "827": 4.991632461547852,
      "828": 3.2274351119995117,
      "829": -2.3787243366241455,
      "830": -4.737401008605957,
      "831": 3.8752129077911377,
      "832": -12.00991153717041,
      "833": -0.11314486712217331,
      "834": 5.675623893737793,
      "835": -3.621046543121338,
      "836": -1.4629449844360352,
      "837": 4.88060998916626,
      "838": 5.153527736663818,
      "839": -6.635580539703369,
      "840": 5.636958599090576,
      "841": 5.207942485809326,
      "842": 8.507796287536621,
      "843": 3.241168260574341,
      "844": 3.1082963943481445,
      "845": -0.1351688653230667,
      "846": -2.8838562965393066,
      "847": -4.943911075592041,
      "848": 7.598623752593994,
      "849": 5.9043378829956055,
      "850": -3.87125301361084,
      "851": 16.7174129486084,
      "852": -4.041714191436768,
      "853": -5.533877372741699,
      "854": -4.160186290740967,
      "855": -5.735261917114258,
      "856": -7.688656330108643,
      "857": 2.427220106124878,
      "858": -3.646076202392578,
      "859": 6.798624038696289,
      "860": -8.779722213745117,
      "861": -0.035793330520391464,
      "862": 12.907112121582031,
      "863": -12.961594581604004,
      "864": -6.257260322570801,
      "865": 8.830488204956055,
      "866": 0.9831836819648743,
      "867": -1.8878384828567505,
      "868": 7.824944019317627,
      "869": 3.84741473197937,
      "870": 1.4400782585144043,
      "871": 6.766330718994141,
      "872": 3.620481491088867,
      "873": -2.776360511779785,
      "874": 0.5598071813583374,
      "875": 6.144253730773926,
      "876": -4.74513053894043,
      "877": -0.10801222175359726,
      "878": 7.913544654846191,
      "879": 5.0355544090271,
      "880": 5.261180400848389,
      "881": 0.9344874024391174,
      "882": 9.644580841064453,
      "883": -0.23869934678077698,
      "884": -2.3488852977752686,
      "885": -3.6213698387145996,
      "886": -3.6575918197631836,
      "887": 3.210897445678711,
      "888": 7.396834373474121,
      "889": 1.5572412014007568,
      "890": 16.977981567382812,
      "891": 11.826745986938477,
      "892": 7.431726455688477,
      "893": 15.512526512145996,
      "894": 3.6756858825683594,
      "895": 2.442368268966675,
      "896": -3.0957694053649902,
      "897": 5.373621940612793,
      "898": 7.304265022277832,
      "899": -1.9649956226348877,
      "900": 0.9633241891860962,
      "901": 0.5381277203559875,
      "902": 1.4422969818115234,
      "903": -0.5674740076065063,
      "904": -0.8412644267082214,
      "905": 2.6065070629119873,
      "906": -4.0955729484558105,
      "907": 0.32263579964637756,
      "908": 0.36815962195396423,
      "909": 0.38926443457603455,
      "910": -0.8928600549697876,
      "911": -0.11652188748121262,
      "912": 0.25843802094459534,
      "913": 1.5465956926345825,
      "914": -0.7788590788841248,
      "915": -0.05494386702775955,
      "916": -0.5083306431770325,
      "917": 1.822964072227478,
      "918": 0.39002904295921326,
      "919": -1.29318368434906,
      "920": 2.556680679321289,
      "921": -2.4467720985412598,
      "922": -0.9123154878616333,
      "923": -0.20977868139743805,
      "924": 2.590137004852295,
      "925": 0.28577348589897156,
      "926": -1.1395654678344727,
      "927": 0.5869461894035339,
      "928": 0.10521534830331802,
      "929": -1.8894659280776978,
      "930": -1.1178219318389893,
      "931": 0.14379264414310455,
      "932": -0.34539464116096497,
      "933": 1.476447343826294,
      "934": 0.630521833896637,
      "935": 1.6467299461364746,
      "936": 2.402543067932129,
      "937": 1.260705590248108,
      "938": 1.7556368112564087,
      "939": -1.0638785362243652,
      "940": 0.2014019787311554,
      "941": 1.5226941108703613,
      "942": 0.2675550878047943,
      "943": -2.137441396713257,
      "944": -0.8519048690795898,
      "945": -1.760097622871399,
      "946": -0.648280680179596,
      "947": 0.9347047805786133,
      "948": -0.09304773807525635,
      "949": -0.2431005984544754,
      "950": 0.09539665281772614,
      "951": -0.6632325649261475,
      "952": -1.1992350816726685,
      "953": -1.6841318607330322,
      "954": 0.6239879131317139,
      "955": -0.427529901266098,
      "956": -1.532340407371521,
      "957": 0.5587611794471741,
      "958": 0.829133927822113,
      "959": -1.0353833436965942,
      "960": -1.6987580060958862,
      "961": -0.0636301189661026,
      "962": -0.07569403201341629,
      "963": 0.0338338166475296,
      "964": 0.04338143393397331,
      "965": -0.012040859088301659,
      "966": 0.0053796772845089436,
      "967": -0.007176774553954601,
      "968": 0.05311550199985504,
      "969": -0.03569534420967102,
      "970": -0.05871078744530678,
      "971": 0.026730002835392952,
      "972": 0.07571421563625336,
      "973": -0.07477127760648727,
      "974": -0.02157341130077839,
      "975": -0.06484989076852798,
      "976": 0.003290109569206834,
      "977": 0.004336679354310036,
      "978": -0.024949664250016212,
      "979": -0.01888423040509224,
      "980": 0.0601530559360981,
      "981": 0.0366361029446125,
      "982": -0.05668054148554802,
      "983": -0.06985444575548172,
      "984": 0.021672038361430168,
      "985": 0.06360144168138504,
      "986": -0.007500481326133013,
      "987": -0.002349936170503497,
      "988": -0.03852695971727371,
      "989": 0.014232862740755081,
      "990": -0.0071499100886285305,
      "991": 0.07234255224466324
    }
  },
  "hiddenLayers": [
    {
      "inputMatrix": {
        "rows": 20,
        "columns": 31,
        "weights": {
          "0": 0.9542075395584106,
          "1": -0.19639694690704346,
          "2": -0.0791638195514679,
          "3": 0.7553467750549316,
          "4": -0.08430524170398712,
          "5": -1.9585530757904053,
          "6": 0.10364864021539688,
          "7": 0.959424614906311,
          "8": 1.8788156509399414,
          "9": 0.16781266033649445,
          "10": 0.5845673084259033,
          "11": 0.5518748164176941,
          "12": 0.5650769472122192,
          "13": 0.07041682302951813,
          "14": 0.8739719986915588,
          "15": -0.2329155057668686,
          "16": -0.17004716396331787,
          "17": -0.0021073673851788044,
          "18": -1.9323906898498535,
          "19": 0.7980411648750305,
          "20": -0.13932673633098602,
          "21": -0.1945074200630188,
          "22": -0.19448105990886688,
          "23": 0.9016333818435669,
          "24": 0.5701864361763,
          "25": 0.42585304379463196,
          "26": -1.9704431295394897,
          "27": 0.41336023807525635,
          "28": -0.811765730381012,
          "29": -0.33318424224853516,
          "30": 1.0818021297454834,
          "31": 0.2053379863500595,
          "32": -0.7990177273750305,
          "33": -4.522129058837891,
          "34": 1.277283787727356,
          "35": 3.6248443126678467,
          "36": 0.05198133736848831,
          "37": -0.5914831161499023,
          "38": 0.46084609627723694,
          "39": -0.7518891096115112,
          "40": -2.8348779678344727,
          "41": -2.842461585998535,
          "42": 1.8049943447113037,
          "43": -0.6080411672592163,
          "44": -0.7875285148620605,
          "45": -1.835623860359192,
          "46": -1.5341969728469849,
          "47": -0.9148096442222595,
          "48": 1.9767943620681763,
          "49": 1.9698511362075806,
          "50": 1.6505104303359985,
          "51": 0.08544538915157318,
          "52": -0.9916077256202698,
          "53": -1.2427945137023926,
          "54": -1.7530437707901,
          "55": 0.13090021908283234,
          "56": -2.663452386856079,
          "57": 1.8268417119979858,
          "58": 1.2858401536941528,
          "59": 0.4032004177570343,
          "60": 1.7069815397262573,
          "61": -0.40357622504234314,
          "62": -3.035090684890747,
          "63": -3.113577127456665,
          "64": -2.0492212772369385,
          "65": -0.6079882383346558,
          "66": -1.593690037727356,
          "67": 2.229508399963379,
          "68": -0.25002357363700867,
          "69": -0.25824254751205444,
          "70": -0.4864857494831085,
          "71": 1.4036239385604858,
          "72": 0.010893294587731361,
          "73": -0.015988605096936226,
          "74": 0.7030463814735413,
          "75": -1.351882815361023,
          "76": -1.5209909677505493,
          "77": 2.2174603939056396,
          "78": 1.6683673858642578,
          "79": 1.5304886102676392,
          "80": 2.1868529319763184,
          "81": 0.007863637991249561,
          "82": 0.22981682419776917,
          "83": -1.188896656036377,
          "84": -2.171339750289917,
          "85": -2.175929307937622,
          "86": -0.14805136620998383,
          "87": -3.213118076324463,
          "88": 0.009256616234779358,
          "89": 2.563056230545044,
          "90": -0.24008707702159882,
          "91": -1.4000523090362549,
          "92": 0.05324104428291321,
          "93": -1.0774601697921753,
          "94": -0.5403881072998047,
          "95": -0.09815824031829834,
          "96": 1.9364486932754517,
          "97": -0.46552330255508423,
          "98": 0.7296140193939209,
          "99": -0.081394724547863,
          "100": 0.2960185408592224,
          "101": 1.2720524072647095,
          "102": -0.9017387628555298,
          "103": 0.4403536319732666,
          "104": 1.3017687797546387,
          "105": 0.34589388966560364,
          "106": -3.4762444496154785,
          "107": 0.8352183699607849,
          "108": -3.4058728218078613,
          "109": 0.008149524219334126,
          "110": -0.23293046653270721,
          "111": -0.14993423223495483,
          "112": -0.0029193435329943895,
          "113": 0.13865061104297638,
          "114": 0.11619683355093002,
          "115": 0.3092414140701294,
          "116": -0.5091529488563538,
          "117": 0.5417685508728027,
          "118": 0.5437644124031067,
          "119": -2.12324595451355,
          "120": -0.8317800164222717,
          "121": 0.13051925599575043,
          "122": 0.1863282173871994,
          "123": -1.5085086822509766,
          "124": 0.28478285670280457,
          "125": -0.15495409071445465,
          "126": 0.3740602433681488,
          "127": -1.4300901889801025,
          "128": -0.1837748885154724,
          "129": -0.7923585772514343,
          "130": 0.6446425914764404,
          "131": -2.5814733505249023,
          "132": 0.5060932636260986,
          "133": -0.4283876121044159,
          "134": 0.5055071711540222,
          "135": -0.07279227674007416,
          "136": -1.2006183862686157,
          "137": 1.9238437414169312,
          "138": -1.400337815284729,
          "139": 0.24132061004638672,
          "140": 1.3879636526107788,
          "141": 2.6617913246154785,
          "142": 2.0604326725006104,
          "143": -0.014298180118203163,
          "144": -2.918897867202759,
          "145": 1.3602923154830933,
          "146": -2.138800859451294,
          "147": -0.834404468536377,
          "148": -3.7194995880126953,
          "149": -1.2932430505752563,
          "150": -0.49325981736183167,
          "151": 0.8529455661773682,
          "152": 1.4486117362976074,
          "153": -1.705746054649353,
          "154": -1.7624648809432983,
          "155": 0.09414742141962051,
          "156": -2.3830313682556152,
          "157": -0.932252049446106,
          "158": 0.7478800415992737,
          "159": 0.07379268109798431,
          "160": -1.0283243656158447,
          "161": -0.6507220268249512,
          "162": -3.1472480297088623,
          "163": 1.0777770280838013,
          "164": -0.8529229164123535,
          "165": 0.5851011276245117,
          "166": -0.403584748506546,
          "167": 0.543221652507782,
          "168": 0.24814537167549133,
          "169": 0.8677337765693665,
          "170": 0.25438523292541504,
          "171": 0.7321040034294128,
          "172": -0.23148398101329803,
          "173": 1.0801470279693604,
          "174": 1.2131116390228271,
          "175": -1.2341934442520142,
          "176": 0.6370449662208557,
          "177": -0.995516836643219,
          "178": 0.5384626388549805,
          "179": 0.717343270778656,
          "180": -0.28891095519065857,
          "181": 0.5731625556945801,
          "182": 0.6410614848136902,
          "183": -0.38535913825035095,
          "184": -1.3342978954315186,
          "185": 0.6030087471008301,
          "186": -1.1417462825775146,
          "187": -0.9357689619064331,
          "188": -1.7707128524780273,
          "189": -0.4529900550842285,
          "190": 1.2460614442825317,
          "191": -1.2993301153182983,
          "192": -1.3851960897445679,
          "193": -2.7817022800445557,
          "194": -0.45362207293510437,
          "195": -0.5242703557014465,
          "196": 0.9635969996452332,
          "197": -1.3572133779525757,
          "198": -2.111781120300293,
          "199": -1.8229626417160034,
          "200": -1.473084568977356,
          "201": -0.6357851028442383,
          "202": 1.6724401712417603,
          "203": -0.47470664978027344,
          "204": 1.2388328313827515,
          "205": 1.556291937828064,
          "206": -1.2638663053512573,
          "207": 0.3342413604259491,
          "208": -2.208754062652588,
          "209": 1.4249794483184814,
          "210": -0.13458269834518433,
          "211": -0.8017510175704956,
          "212": 1.0363242626190186,
          "213": -0.293432354927063,
          "214": -2.4017162322998047,
          "215": 0.5982468724250793,
          "216": -0.5269833207130432,
          "217": -4.0499420166015625,
          "218": 0.6876579523086548,
          "219": -0.14140412211418152,
          "220": -0.17036153376102448,
          "221": -1.9444328546524048,
          "222": 2.028329610824585,
          "223": 2.4636006355285645,
          "224": 0.6939409375190735,
          "225": -0.9044917821884155,
          "226": 1.4209669828414917,
          "227": 0.4976821541786194,
          "228": -0.8975512385368347,
          "229": -2.921511650085449,
          "230": 0.22221742570400238,
          "231": -1.3439826965332031,
          "232": -0.4273949861526489,
          "233": -0.04973303899168968,
          "234": 0.560314953327179,
          "235": 1.3026442527770996,
          "236": -1.1774674654006958,
          "237": 0.5046834945678711,
          "238": 0.15961262583732605,
          "239": -0.2974407970905304,
          "240": -1.3548705577850342,
          "241": 0.968103289604187,
          "242": -1.6448023319244385,
          "243": 0.5470983386039734,
          "244": 0.714203417301178,
          "245": 0.7987824082374573,
          "246": 0.6494104266166687,
          "247": -1.4784314632415771,
          "248": 0.26588526368141174,
          "249": 1.4682750701904297,
          "250": -0.3436121642589569,
          "251": 0.1947551816701889,
          "252": 0.7548037767410278,
          "253": -1.4594695568084717,
          "254": 0.5128834843635559,
          "255": -0.9634273648262024,
          "256": 1.5664993524551392,
          "257": -0.6907983422279358,
          "258": -0.34085071086883545,
          "259": -0.863822340965271,
          "260": -0.4950791001319885,
          "261": 0.028316857293248177,
          "262": 0.09372316300868988,
          "263": -2.7348010540008545,
          "264": 0.4859379827976227,
          "265": -0.22043739259243011,
          "266": -0.002213617553934455,
          "267": -1.2279512882232666,
          "268": -2.6415822505950928,
          "269": -0.1279735565185547,
          "270": -1.7244640588760376,
          "271": -2.8412058353424072,
          "272": -2.016058921813965,
          "273": 0.4005483388900757,
          "274": -2.808695077896118,
          "275": -1.6640299558639526,
          "276": 1.0408120155334473,
          "277": -0.825883150100708,
          "278": -0.9920636415481567,
          "279": -2.061836004257202,
          "280": -0.9304887652397156,
          "281": -1.542945384979248,
          "282": 0.9827403426170349,
          "283": 0.24168691039085388,
          "284": -0.07291798293590546,
          "285": 0.16083571314811707,
          "286": -0.45108237862586975,
          "287": -0.5715779066085815,
          "288": 0.1965058296918869,
          "289": -0.9584358334541321,
          "290": 1.6350029706954956,
          "291": 0.8644409775733948,
          "292": 0.6955937147140503,
          "293": -0.30657169222831726,
          "294": 1.0208799839019775,
          "295": -1.0305123329162598,
          "296": -0.9165493249893188,
          "297": 0.8896132707595825,
          "298": 0.09806272387504578,
          "299": 0.24698856472969055,
          "300": -0.003765188390389085,
          "301": -1.6296041011810303,
          "302": -1.0455317497253418,
          "303": 0.08133246749639511,
          "304": -0.1340222805738449,
          "305": -1.2066867351531982,
          "306": 0.18422101438045502,
          "307": 1.755748987197876,
          "308": 0.3571697175502777,
          "309": -1.1733677387237549,
          "310": 0.8727959990501404,
          "311": -1.1908552646636963,
          "312": 0.24502825736999512,
          "313": 1.913540244102478,
          "314": 0.23712320625782013,
          "315": -1.5962541103363037,
          "316": 0.002589182462543249,
          "317": -3.7634150981903076,
          "318": -1.5142077207565308,
          "319": 0.027717430144548416,
          "320": 3.1668546199798584,
          "321": -1.124719262123108,
          "322": -0.5113568305969238,
          "323": 1.069404125213623,
          "324": -0.4437313377857208,
          "325": 0.03747383877635002,
          "326": 2.5291948318481445,
          "327": -0.4319813847541809,
          "328": 2.1802055835723877,
          "329": -0.2747432589530945,
          "330": -2.058414936065674,
          "331": 1.4501142501831055,
          "332": -0.9084362983703613,
          "333": 0.5907996892929077,
          "334": 0.4051952064037323,
          "335": 2.177259922027588,
          "336": 2.85422682762146,
          "337": -1.1856118440628052,
          "338": -0.9384218454360962,
          "339": -0.5350270867347717,
          "340": 0.040496595203876495,
          "341": 0.2552395761013031,
          "342": 0.6568735837936401,
          "343": -0.3822520971298218,
          "344": 1.5715826749801636,
          "345": 0.045837126672267914,
          "346": -0.7536327838897705,
          "347": 0.18168386816978455,
          "348": -0.40606874227523804,
          "349": 0.45944902300834656,
          "350": -0.6593217253684998,
          "351": -1.4544225931167603,
          "352": 0.717677116394043,
          "353": 1.1102008819580078,
          "354": -1.9039987325668335,
          "355": 0.21841542422771454,
          "356": -0.4914311170578003,
          "357": -0.3045923113822937,
          "358": -0.41570472717285156,
          "359": 0.25481799244880676,
          "360": 1.0040594339370728,
          "361": 0.328715443611145,
          "362": 1.374083161354065,
          "363": 0.18641197681427002,
          "364": -1.124308466911316,
          "365": 0.16463355720043182,
          "366": -0.18050837516784668,
          "367": 0.4472302198410034,
          "368": -0.459368497133255,
          "369": 1.5328164100646973,
          "370": -1.3133443593978882,
          "371": -0.8982465863227844,
          "372": -0.8184095621109009,
          "373": -2.671827554702759,
          "374": -2.9903945922851562,
          "375": -0.18534065783023834,
          "376": -0.7374236583709717,
          "377": 0.31609001755714417,
          "378": 2.7280752658843994,
          "379": -0.4414941072463989,
          "380": -0.32194921374320984,
          "381": -0.5842500925064087,
          "382": 0.30214256048202515,
          "383": 1.0630625486373901,
          "384": -0.3700423240661621,
          "385": 0.7020089626312256,
          "386": -2.965378999710083,
          "387": 0.6551303267478943,
          "388": 0.05328092724084854,
          "389": 0.15966778993606567,
          "390": 2.5542819499969482,
          "391": -0.23673667013645172,
          "392": -0.010222312994301319,
          "393": 1.5829463005065918,
          "394": -1.9373366832733154,
          "395": -0.23462390899658203,
          "396": 1.2272218465805054,
          "397": 0.6899542808532715,
          "398": -0.49910157918930054,
          "399": 1.886690378189087,
          "400": -0.0040280562825500965,
          "401": -1.629561185836792,
          "402": 0.3265361487865448,
          "403": 2.2781262397766113,
          "404": -2.7479467391967773,
          "405": 0.6850827932357788,
          "406": -2.4633235931396484,
          "407": 1.1795889139175415,
          "408": 0.5972920656204224,
          "409": -0.19267797470092773,
          "410": 0.3115502595901489,
          "411": -0.9993785619735718,
          "412": 0.9746842384338379,
          "413": -0.9413394927978516,
          "414": -0.43916353583335876,
          "415": -1.3360697031021118,
          "416": 0.4782470762729645,
          "417": -1.178110957145691,
          "418": 2.7045488357543945,
          "419": -0.17289000749588013,
          "420": -0.40455490350723267,
          "421": 0.45364809036254883,
          "422": 0.1060686931014061,
          "423": 1.1573011875152588,
          "424": 0.2667469084262848,
          "425": 2.2759363651275635,
          "426": 2.527181386947632,
          "427": 1.9840881824493408,
          "428": 0.14932779967784882,
          "429": 0.39011049270629883,
          "430": 0.25614601373672485,
          "431": -1.4086204767227173,
          "432": 0.7785865664482117,
          "433": 2.0218753814697266,
          "434": -0.549776554107666,
          "435": 0.20959137380123138,
          "436": 0.8507232666015625,
          "437": 0.5771700739860535,
          "438": -1.6329028606414795,
          "439": -0.03193676471710205,
          "440": 0.12840233743190765,
          "441": -0.017408451065421104,
          "442": 0.6942621469497681,
          "443": -0.32936230301856995,
          "444": 1.2895004749298096,
          "445": -0.9864854216575623,
          "446": 0.5783864259719849,
          "447": -1.5460200309753418,
          "448": -0.7968016862869263,
          "449": -2.209951162338257,
          "450": 1.2989238500595093,
          "451": 1.3859751224517822,
          "452": 0.7022421956062317,
          "453": -0.4887874126434326,
          "454": -0.2855833172798157,
          "455": 1.3893507719039917,
          "456": -1.3397706747055054,
          "457": -2.3447461128234863,
          "458": -0.7917483448982239,
          "459": -1.0361268520355225,
          "460": -0.44101589918136597,
          "461": 0.28789374232292175,
          "462": 1.998119831085205,
          "463": -1.4757062196731567,
          "464": -1.1036566495895386,
          "465": -0.30581483244895935,
          "466": -1.1433695554733276,
          "467": -0.7157661318778992,
          "468": -3.8962466716766357,
          "469": -0.379340261220932,
          "470": 1.4947819709777832,
          "471": 0.2342051863670349,
          "472": 0.9765782952308655,
          "473": -0.4636591672897339,
          "474": -0.06033189967274666,
          "475": -0.35344088077545166,
          "476": -0.5947570204734802,
          "477": -2.2443642616271973,
          "478": 2.2130794525146484,
          "479": -1.7559704780578613,
          "480": -0.7424210906028748,
          "481": -0.4526212215423584,
          "482": 1.5443259477615356,
          "483": -0.8781258463859558,
          "484": -1.1100045442581177,
          "485": 0.7527377605438232,
          "486": -0.23352450132369995,
          "487": -0.09588562697172165,
          "488": -0.26528221368789673,
          "489": 0.8284244537353516,
          "490": -2.97937273979187,
          "491": -0.9217672348022461,
          "492": 1.8743784427642822,
          "493": 0.3009762167930603,
          "494": 0.19499719142913818,
          "495": -1.1158506870269775,
          "496": -0.17942358553409576,
          "497": 0.1950530707836151,
          "498": -0.7608935236930847,
          "499": 0.24103392660617828,
          "500": 1.3098832368850708,
          "501": -1.5491418838500977,
          "502": 0.8991832137107849,
          "503": -0.5059882998466492,
          "504": 2.6841015815734863,
          "505": -3.0039222240448,
          "506": 0.18037424981594086,
          "507": 0.8928868770599365,
          "508": -0.22295653820037842,
          "509": -1.1215860843658447,
          "510": -1.4267839193344116,
          "511": -2.419611930847168,
          "512": -0.8395761251449585,
          "513": -1.0353491306304932,
          "514": 1.4329252243041992,
          "515": 0.7789761424064636,
          "516": -1.3460031747817993,
          "517": 2.5806710720062256,
          "518": -2.606492757797241,
          "519": -0.7520910501480103,
          "520": -1.4283969402313232,
          "521": -1.4767615795135498,
          "522": -1.6700026988983154,
          "523": -0.8736383318901062,
          "524": 0.2078557014465332,
          "525": -2.5595157146453857,
          "526": -1.9931273460388184,
          "527": -1.530566692352295,
          "528": 1.3376010656356812,
          "529": -2.183774948120117,
          "530": -0.317541241645813,
          "531": 1.1413320302963257,
          "532": 1.3437228202819824,
          "533": 0.3568243384361267,
          "534": 1.2646689414978027,
          "535": 0.49570587277412415,
          "536": -2.2482030391693115,
          "537": -1.3248875141143799,
          "538": 2.7877650260925293,
          "539": -0.2594899535179138,
          "540": -0.7163532376289368,
          "541": 0.13398216664791107,
          "542": -0.9095764756202698,
          "543": -2.066417932510376,
          "544": -1.6639739274978638,
          "545": 0.1277630776166916,
          "546": 1.676458477973938,
          "547": 0.5661035776138306,
          "548": -0.07510194182395935,
          "549": 0.11968102306127548,
          "550": -0.959932804107666,
          "551": 1.0547269582748413,
          "552": 0.2925819158554077,
          "553": -3.692514419555664,
          "554": -1.0469416379928589,
          "555": 2.8327572345733643,
          "556": -0.674595296382904,
          "557": -1.937743902206421,
          "558": 1.3227612972259521,
          "559": 0.40187036991119385,
          "560": -1.6209782361984253,
          "561": 0.8716720342636108,
          "562": 0.992497444152832,
          "563": 0.6483355760574341,
          "564": 0.8800008893013,
          "565": -0.8747353553771973,
          "566": 1.086355209350586,
          "567": -0.6627556085586548,
          "568": -0.7996114492416382,
          "569": 1.4145278930664062,
          "570": 0.3199038505554199,
          "571": -2.0834388732910156,
          "572": -0.11518502235412598,
          "573": -0.7123076319694519,
          "574": -0.9931760430335999,
          "575": 0.44522160291671753,
          "576": 0.6322391033172607,
          "577": -0.7475641965866089,
          "578": -0.5585532188415527,
          "579": 0.12427899986505508,
          "580": -2.251378059387207,
          "581": -1.2861424684524536,
          "582": -0.439762681722641,
          "583": -0.732142984867096,
          "584": 0.3687233328819275,
          "585": 0.27733245491981506,
          "586": 0.45733240246772766,
          "587": -0.014424591325223446,
          "588": -2.0001659393310547,
          "589": -3.0250277519226074,
          "590": 1.1332063674926758,
          "591": 0.6099611520767212,
          "592": -1.6277676820755005,
          "593": 0.8333954215049744,
          "594": 2.423250913619995,
          "595": 0.9543795585632324,
          "596": 1.6825497150421143,
          "597": -0.80716872215271,
          "598": 0.9595935940742493,
          "599": -1.8084948062896729,
          "600": -0.2186855673789978,
          "601": -1.0363372564315796,
          "602": 1.7465112209320068,
          "603": -0.6311728954315186,
          "604": 0.7752105593681335,
          "605": 0.36379945278167725,
          "606": 0.9721834659576416,
          "607": -0.7453709244728088,
          "608": -2.1035876274108887,
          "609": 1.6254974603652954,
          "610": -1.8257980346679688,
          "611": -0.8024089336395264,
          "612": 0.1336059868335724,
          "613": 0.6275520324707031,
          "614": -1.1551421880722046,
          "615": -1.617228388786316,
          "616": 0.656937301158905,
          "617": -0.24223017692565918,
          "618": -0.28838199377059937,
          "619": -1.7598390579223633
        }
      },
      "inputHidden": {
        "rows": 20,
        "columns": 20,
        "weights": {
          "0": -1.8723658323287964,
          "1": 1.8171660900115967,
          "2": -2.9876692295074463,
          "3": -5.811707019805908,
          "4": 0.214328333735466,
          "5": 0.32900187373161316,
          "6": 0.9769355058670044,
          "7": 6.026460647583008,
          "8": -1.0249066352844238,
          "9": 1.466869831085205,
          "10": -0.8215892910957336,
          "11": 3.6461474895477295,
          "12": 2.4117748737335205,
          "13": 0.3975971043109894,
          "14": 3.4698069095611572,
          "15": -3.17732310295105,
          "16": 1.7555286884307861,
          "17": 5.427518844604492,
          "18": 2.025921583175659,
          "19": -2.77626371383667,
          "20": -1.183412790298462,
          "21": 0.49173876643180847,
          "22": 0.12966704368591309,
          "23": 0.9275631308555603,
          "24": -0.5571082234382629,
          "25": -0.9325051307678223,
          "26": 1.0936449766159058,
          "27": -1.941267728805542,
          "28": 2.00408673286438,
          "29": 1.4695079326629639,
          "30": -0.7034257054328918,
          "31": 0.6139596104621887,
          "32": -0.4990095794200897,
          "33": -0.008386678993701935,
          "34": -1.3793209791183472,
          "35": -0.8850839138031006,
          "36": 0.4361022710800171,
          "37": -0.20092150568962097,
          "38": -0.23137052357196808,
          "39": -0.6878755688667297,
          "40": -1.1260048151016235,
          "41": 1.4664695262908936,
          "42": -0.4924091100692749,
          "43": -1.740439534187317,
          "44": -0.715067446231842,
          "45": 0.2727586030960083,
          "46": 1.0731089115142822,
          "47": 1.5648082494735718,
          "48": -0.7967485189437866,
          "49": 2.592101812362671,
          "50": -1.5319764614105225,
          "51": 0.3109396696090698,
          "52": 0.9726793766021729,
          "53": 0.05743541941046715,
          "54": 2.8231849670410156,
          "55": -1.4659819602966309,
          "56": 0.009747286327183247,
          "57": 1.2769007682800293,
          "58": -1.0994418859481812,
          "59": 0.16785822808742523,
          "60": 0.20184943079948425,
          "61": -5.952891826629639,
          "62": -1.5986788272857666,
          "63": 2.9597995281219482,
          "64": 1.8483682870864868,
          "65": -1.2122721672058105,
          "66": 2.0560147762298584,
          "67": -2.5754897594451904,
          "68": 0.6766641139984131,
          "69": -1.9555727243423462,
          "70": -3.6974942684173584,
          "71": -1.7764315605163574,
          "72": 2.3669142723083496,
          "73": 3.441272020339966,
          "74": -3.0376760959625244,
          "75": 2.028347969055176,
          "76": 1.760474443435669,
          "77": -3.7258965969085693,
          "78": 0.4322145879268646,
          "79": 0.08552277088165283,
          "80": 1.1081682443618774,
          "81": 0.6924538612365723,
          "82": -0.1432301104068756,
          "83": -0.8528435826301575,
          "84": -0.8113995790481567,
          "85": -3.4210917949676514,
          "86": 0.4589431583881378,
          "87": -1.7948087453842163,
          "88": -3.322593927383423,
          "89": -0.8137162327766418,
          "90": -0.5389261841773987,
          "91": -0.4531360864639282,
          "92": 1.1353201866149902,
          "93": -1.6274932622909546,
          "94": -0.049438945949077606,
          "95": -0.9110223650932312,
          "96": -0.08262788504362106,
          "97": -2.0872080326080322,
          "98": -4.48617696762085,
          "99": -0.11475757509469986,
          "100": -1.0995309352874756,
          "101": 7.02634334564209,
          "102": -0.39813730120658875,
          "103": 1.0894910097122192,
          "104": 3.0778491497039795,
          "105": 3.950110673904419,
          "106": 4.355311870574951,
          "107": 3.6472690105438232,
          "108": 4.377828598022461,
          "109": -0.38757672905921936,
          "110": 0.0407574437558651,
          "111": 3.746267318725586,
          "112": 3.1299943923950195,
          "113": -1.7250486612319946,
          "114": -1.5829545259475708,
          "115": -2.126542806625366,
          "116": -2.710056781768799,
          "117": -0.08467080444097519,
          "118": -5.866288661956787,
          "119": -1.927498459815979,
          "120": -2.4977333545684814,
          "121": 1.9248318672180176,
          "122": -0.9670937061309814,
          "123": -1.590122938156128,
          "124": -1.481843113899231,
          "125": -0.47294193506240845,
          "126": -0.8378338813781738,
          "127": -0.3619456887245178,
          "128": -1.0183182954788208,
          "129": 1.608009696006775,
          "130": -1.0546218156814575,
          "131": 0.42340201139450073,
          "132": 1.0116130113601685,
          "133": -0.7954418659210205,
          "134": -0.4673723876476288,
          "135": -0.5913868546485901,
          "136": -1.1358275413513184,
          "137": 1.5574017763137817,
          "138": 2.031019926071167,
          "139": -0.20167121291160583,
          "140": -0.8478344082832336,
          "141": -1.1549367904663086,
          "142": -0.11522272974252701,
          "143": 1.4118826389312744,
          "144": 0.14309844374656677,
          "145": -0.9266587495803833,
          "146": 0.9185504913330078,
          "147": -1.1515731811523438,
          "148": 0.22509849071502686,
          "149": -0.17367973923683167,
          "150": -0.6568095088005066,
          "151": -0.6149017214775085,
          "152": 1.0819324254989624,
          "153": -0.550237238407135,
          "154": -0.005516745615750551,
          "155": 0.8713924288749695,
          "156": 1.637202262878418,
          "157": -0.1596095860004425,
          "158": -1.1045143604278564,
          "159": -0.7016506195068359,
          "160": 0.3341063857078552,
          "161": 0.23741430044174194,
          "162": -3.2673232555389404,
          "163": 0.7645668387413025,
          "164": 0.39246171712875366,
          "165": 1.4437224864959717,
          "166": 0.33284062147140503,
          "167": -0.0012549825478345156,
          "168": 0.2685651481151581,
          "169": 3.281543493270874,
          "170": -2.580270767211914,
          "171": -0.7801365852355957,
          "172": 0.9738940000534058,
          "173": -0.5687342882156372,
          "174": -1.1959067583084106,
          "175": -0.361771821975708,
          "176": 0.49309295415878296,
          "177": -1.4527173042297363,
          "178": 1.380682110786438,
          "179": -1.8180534839630127,
          "180": 5.003785610198975,
          "181": 5.126598834991455,
          "182": 2.9867634773254395,
          "183": -1.2674816846847534,
          "184": -2.1784515380859375,
          "185": -4.020430088043213,
          "186": 0.9716716408729553,
          "187": 7.031684398651123,
          "188": -2.1375322341918945,
          "189": -3.478363275527954,
          "190": 1.704476237297058,
          "191": 0.4708816409111023,
          "192": 1.5350862741470337,
          "193": 0.6567521691322327,
          "194": 1.4848023653030396,
          "195": -2.3690731525421143,
          "196": 1.0916306972503662,
          "197": 5.142021656036377,
          "198": -0.45575830340385437,
          "199": -1.1938633918762207,
          "200": -0.3927468955516815,
          "201": 1.6533280611038208,
          "202": 0.22373132407665253,
          "203": -2.1322121620178223,
          "204": -1.568097472190857,
          "205": 0.8716241717338562,
          "206": 1.099358320236206,
          "207": 1.5295172929763794,
          "208": 0.790688157081604,
          "209": 0.8091133832931519,
          "210": -0.421051949262619,
          "211": 3.1358489990234375,
          "212": -0.9032987356185913,
          "213": -2.781341314315796,
          "214": -0.5644245147705078,
          "215": -0.1678796112537384,
          "216": -2.176645278930664,
          "217": 1.9640597105026245,
          "218": 0.5853623151779175,
          "219": -0.6853845119476318,
          "220": -1.3179928064346313,
          "221": -0.8364958763122559,
          "222": -3.6198315620422363,
          "223": 0.5163837671279907,
          "224": -2.0895698070526123,
          "225": 0.3073759973049164,
          "226": 2.998542547225952,
          "227": -1.2509641647338867,
          "228": 4.857323169708252,
          "229": 2.7181248664855957,
          "230": -2.1961655616760254,
          "231": -0.16910384595394135,
          "232": 4.32038688659668,
          "233": 1.9977048635482788,
          "234": -4.340379238128662,
          "235": 5.3521833419799805,
          "236": -1.8065893650054932,
          "237": -2.9379820823669434,
          "238": 4.593883037567139,
          "239": 1.6669007539749146,
          "240": -4.4059648513793945,
          "241": 3.2981131076812744,
          "242": 1.3427464962005615,
          "243": -2.0343704223632812,
          "244": 0.1604682058095932,
          "245": -1.9214482307434082,
          "246": 1.6181583404541016,
          "247": -0.5133163332939148,
          "248": -0.290280818939209,
          "249": -0.783886194229126,
          "250": 2.4152798652648926,
          "251": 2.4456512928009033,
          "252": -2.395561933517456,
          "253": -5.336280345916748,
          "254": 1.5771445035934448,
          "255": -1.3182610273361206,
          "256": -1.3883723020553589,
          "257": 0.8562097549438477,
          "258": -0.1957603096961975,
          "259": 0.03172443434596062,
          "260": -0.08593916147947311,
          "261": -2.055864095687866,
          "262": 0.6705781817436218,
          "263": 3.076423168182373,
          "264": -0.9374913573265076,
          "265": 1.293946385383606,
          "266": 1.3815746307373047,
          "267": -0.19351845979690552,
          "268": 4.506445407867432,
          "269": -0.6609098315238953,
          "270": 0.27591508626937866,
          "271": -1.9017736911773682,
          "272": -1.415363073348999,
          "273": 6.487728118896484,
          "274": -1.7788015604019165,
          "275": 0.16765469312667847,
          "276": -0.9596751928329468,
          "277": -1.9776009321212769,
          "278": 1.6919068098068237,
          "279": -3.4585936069488525,
          "280": 0.9210321307182312,
          "281": -3.249479293823242,
          "282": -1.3823004961013794,
          "283": 0.8357400298118591,
          "284": -1.719242811203003,
          "285": 0.6206855773925781,
          "286": -0.005297635216265917,
          "287": -1.4393903017044067,
          "288": -1.4288759231567383,
          "289": -1.6482528448104858,
          "290": -3.9044923782348633,
          "291": -1.9867688417434692,
          "292": 3.8508636951446533,
          "293": 0.0018845837330445647,
          "294": 1.147679328918457,
          "295": 0.3388376533985138,
          "296": 1.032365322113037,
          "297": -6.171535968780518,
          "298": 0.7514640688896179,
          "299": 1.0567830801010132,
          "300": -1.6445084810256958,
          "301": -1.3522003889083862,
          "302": -0.030200526118278503,
          "303": 2.5392775535583496,
          "304": -0.6722787618637085,
          "305": -1.6019535064697266,
          "306": 4.627621173858643,
          "307": -2.110175132751465,
          "308": 3.1909101009368896,
          "309": 2.3965089321136475,
          "310": -0.2815767824649811,
          "311": -2.8984761238098145,
          "312": 1.1074557304382324,
          "313": -0.8674700260162354,
          "314": -3.7258663177490234,
          "315": -1.1378127336502075,
          "316": 1.7183103561401367,
          "317": -1.5667368173599243,
          "318": -0.6775918006896973,
          "319": -0.5483534932136536,
          "320": -0.6042918562889099,
          "321": 1.70517098903656,
          "322": 0.9764917492866516,
          "323": 0.7182192802429199,
          "324": -2.2326366901397705,
          "325": -1.7827949523925781,
          "326": -1.1372045278549194,
          "327": -1.054126501083374,
          "328": 1.3994230031967163,
          "329": -1.1727254390716553,
          "330": 1.1681640148162842,
          "331": -0.7658865451812744,
          "332": -0.1116972491145134,
          "333": -2.0864384174346924,
          "334": -0.6169745326042175,
          "335": 0.21053804457187653,
          "336": 2.0189647674560547,
          "337": -1.7043581008911133,
          "338": -1.1703649759292603,
          "339": 0.6019107103347778,
          "340": 1.7624120712280273,
          "341": -1.3245843648910522,
          "342": -2.3332557678222656,
          "343": 2.510873794555664,
          "344": -1.4431113004684448,
          "345": 0.7162366509437561,
          "346": 0.9568802118301392,
          "347": -2.5600640773773193,
          "348": 3.945270538330078,
          "349": -1.4817326068878174,
          "350": -1.9665391445159912,
          "351": -2.624229907989502,
          "352": 0.8839297890663147,
          "353": 2.92706298828125,
          "354": -4.689023017883301,
          "355": -2.034485340118408,
          "356": 3.404632568359375,
          "357": -1.2134019136428833,
          "358": -3.935549259185791,
          "359": 0.7680525183677673,
          "360": -3.8256022930145264,
          "361": 2.1315321922302246,
          "362": -1.6222339868545532,
          "363": 0.26767194271087646,
          "364": -2.4747021198272705,
          "365": 5.661044120788574,
          "366": 5.318923473358154,
          "367": 1.5048643350601196,
          "368": 2.9465222358703613,
          "369": 3.84336519241333,
          "370": -2.49086332321167,
          "371": 2.80781888961792,
          "372": 3.138970375061035,
          "373": -3.1165335178375244,
          "374": 0.7979936599731445,
          "375": 0.09487652778625488,
          "376": -2.9785640239715576,
          "377": 0.6276971697807312,
          "378": 3.8765642642974854,
          "379": -2.394885778427124,
          "380": -1.7623846530914307,
          "381": 2.1042838096618652,
          "382": 0.797229528427124,
          "383": 1.3462300300598145,
          "384": -0.30229395627975464,
          "385": -3.5016815662384033,
          "386": 0.4504624009132385,
          "387": -2.9507179260253906,
          "388": -0.9147086143493652,
          "389": -3.7283525466918945,
          "390": 0.2597692012786865,
          "391": -3.7753119468688965,
          "392": 0.7216942310333252,
          "393": -4.062010765075684,
          "394": 0.4567878842353821,
          "395": -4.39932107925415,
          "396": -1.26576566696167,
          "397": 0.6708014607429504,
          "398": -2.5568768978118896,
          "399": 3.220621109008789
        }
      },
      "inputBias": {
        "rows": 20,
        "columns": 1,
        "weights": {
          "0": -3.2482199668884277,
          "1": -1.5440948009490967,
          "2": -0.7175794243812561,
          "3": -0.4718298017978668,
          "4": 0.9731571078300476,
          "5": -4.0485310554504395,
          "6": -0.45620468258857727,
          "7": 0.055444665253162384,
          "8": -0.6704224348068237,
          "9": -0.3554628789424896,
          "10": -0.4878323972225189,
          "11": -0.7137683629989624,
          "12": -0.44778528809547424,
          "13": -0.5380553007125854,
          "14": 0.08943556249141693,
          "15": -0.144442617893219,
          "16": -1.48013174533844,
          "17": -0.640178918838501,
          "18": -1.6432275772094727,
          "19": -1.091078519821167
        }
      },
      "forgetMatrix": {
        "rows": 20,
        "columns": 31,
        "weights": {
          "0": 2.3143856525421143,
          "1": 1.8286620378494263,
          "2": 0.16668252646923065,
          "3": 2.310408353805542,
          "4": 1.4851644039154053,
          "5": -0.5209302306175232,
          "6": 0.08584429323673248,
          "7": 1.1324042081832886,
          "8": 0.2523873746395111,
          "9": -1.9197041988372803,
          "10": 1.124198317527771,
          "11": 1.116316795349121,
          "12": 0.8925425410270691,
          "13": 0.16972501575946808,
          "14": 1.2628740072250366,
          "15": -2.6861953735351562,
          "16": -0.9452512264251709,
          "17": -1.683036208152771,
          "18": -1.1342172622680664,
          "19": -0.614129364490509,
          "20": 1.0640884637832642,
          "21": -0.07036963105201721,
          "22": 1.1851882934570312,
          "23": -1.409044861793518,
          "24": -0.6961672306060791,
          "25": 0.8330737352371216,
          "26": 0.33106207847595215,
          "27": -3.372932195663452,
          "28": 1.4512979984283447,
          "29": -0.4349321126937866,
          "30": -1.5773117542266846,
          "31": 0.5202312469482422,
          "32": -0.14197182655334473,
          "33": -0.33865150809288025,
          "34": -0.5279273390769958,
          "35": -0.28591665625572205,
          "36": -0.9971114993095398,
          "37": 1.966657280921936,
          "38": -3.8135290145874023,
          "39": 4.343505859375,
          "40": -1.3197367191314697,
          "41": -0.22732774913311005,
          "42": -0.06723392754793167,
          "43": -0.7393859624862671,
          "44": 0.0709037035703659,
          "45": -0.4067329168319702,
          "46": -1.336527705192566,
          "47": -1.025702953338623,
          "48": 0.9480820894241333,
          "49": 0.10172972828149796,
          "50": 3.077613353729248,
          "51": -1.9578031301498413,
          "52": 0.4743669331073761,
          "53": -4.769046306610107,
          "54": -0.5696738958358765,
          "55": -2.0759804248809814,
          "56": 0.1444494128227234,
          "57": 0.1618766486644745,
          "58": 0.5824375748634338,
          "59": -1.3426337242126465,
          "60": -2.9710400104522705,
          "61": -0.46789613366127014,
          "62": 0.271701455116272,
          "63": 0.804831862449646,
          "64": 0.5011041760444641,
          "65": 1.3149150609970093,
          "66": -0.9213610291481018,
          "67": 0.30587369203567505,
          "68": -0.22707368433475494,
          "69": 2.9121694564819336,
          "70": 2.370718240737915,
          "71": -1.7114850282669067,
          "72": -0.5985336899757385,
          "73": 2.393004894256592,
          "74": 2.0589520931243896,
          "75": 0.13583433628082275,
          "76": 0.5308330655097961,
          "77": -1.986465334892273,
          "78": -1.3796069622039795,
          "79": 0.6505202054977417,
          "80": -4.18429708480835,
          "81": 1.3013590574264526,
          "82": 0.5831430554389954,
          "83": -0.21184192597866058,
          "84": 0.7467348575592041,
          "85": -0.6757357716560364,
          "86": -0.44409364461898804,
          "87": -1.0186258554458618,
          "88": -1.665511965751648,
          "89": -0.1768149584531784,
          "90": 0.41020917892456055,
          "91": -1.011510968208313,
          "92": 0.4077698886394501,
          "93": 0.09401750564575195,
          "94": -0.7832343578338623,
          "95": -2.754512310028076,
          "96": 1.3094265460968018,
          "97": -0.8073513507843018,
          "98": -0.4496534764766693,
          "99": 1.313008427619934,
          "100": -1.8336142301559448,
          "101": 2.458430767059326,
          "102": -1.1349201202392578,
          "103": -2.0095691680908203,
          "104": 1.449899435043335,
          "105": 0.15933601558208466,
          "106": -0.2961364686489105,
          "107": -0.5862103700637817,
          "108": -0.5701087117195129,
          "109": -2.3004071712493896,
          "110": 0.4380093812942505,
          "111": 0.060075793415308,
          "112": 1.2018808126449585,
          "113": -2.1301400661468506,
          "114": -0.51924067735672,
          "115": -2.970876693725586,
          "116": -2.531186580657959,
          "117": -1.1622986793518066,
          "118": -0.32287096977233887,
          "119": 0.5072782039642334,
          "120": -0.36035123467445374,
          "121": 2.1334469318389893,
          "122": -0.7582389712333679,
          "123": -0.9716379046440125,
          "124": 1.63765549659729,
          "125": 0.7622997164726257,
          "126": 2.2464253902435303,
          "127": -0.025748569518327713,
          "128": -1.87062406539917,
          "129": -1.363864779472351,
          "130": 0.14738403260707855,
          "131": 0.36962243914604187,
          "132": -1.3087211847305298,
          "133": 1.2169822454452515,
          "134": 1.3194267749786377,
          "135": -0.980592668056488,
          "136": 2.8013226985931396,
          "137": 2.6181013584136963,
          "138": 1.8322871923446655,
          "139": 1.5781326293945312,
          "140": 0.3060688376426697,
          "141": 0.21416150033473969,
          "142": 0.1279924362897873,
          "143": -3.830076217651367,
          "144": 0.3423091173171997,
          "145": -1.4332305192947388,
          "146": 2.431455135345459,
          "147": 1.7187013626098633,
          "148": -1.0836983919143677,
          "149": 1.3473411798477173,
          "150": 0.5888056755065918,
          "151": 0.5669879913330078,
          "152": -0.8646985292434692,
          "153": 1.8031342029571533,
          "154": 1.5840469598770142,
          "155": 3.568566083908081,
          "156": 1.4863520860671997,
          "157": 0.2789236605167389,
          "158": -0.0593128502368927,
          "159": 0.061456356197595596,
          "160": 0.6844315528869629,
          "161": -0.45907238125801086,
          "162": 0.7803556323051453,
          "163": -1.5408241748809814,
          "164": -1.1688491106033325,
          "165": 0.8805832266807556,
          "166": 0.925962507724762,
          "167": 2.008540391921997,
          "168": 0.49216940999031067,
          "169": 1.8927066326141357,
          "170": -1.162284255027771,
          "171": -0.7915014028549194,
          "172": -1.6502195596694946,
          "173": -1.2088556289672852,
          "174": 0.07674705237150192,
          "175": -0.6301207542419434,
          "176": -0.7565025687217712,
          "177": 1.6137325763702393,
          "178": 0.49110785126686096,
          "179": -0.8141245245933533,
          "180": 1.2833675146102905,
          "181": -0.65670245885849,
          "182": -1.5473930835723877,
          "183": 2.2173149585723877,
          "184": 0.14651696383953094,
          "185": -0.638255774974823,
          "186": -2.5637147426605225,
          "187": 0.8358461856842041,
          "188": -2.1934974193573,
          "189": -1.0430346727371216,
          "190": 0.10526823997497559,
          "191": 1.0246813297271729,
          "192": -2.8545758724212646,
          "193": -0.0015277229249477386,
          "194": -2.3300857543945312,
          "195": 0.7690805196762085,
          "196": -1.8632043600082397,
          "197": 0.49096590280532837,
          "198": 0.8234606981277466,
          "199": 1.6917994022369385,
          "200": -0.6970374584197998,
          "201": 1.7626200914382935,
          "202": -0.9215633869171143,
          "203": 1.5294384956359863,
          "204": 1.2225494384765625,
          "205": -1.2896815538406372,
          "206": 0.3230659067630768,
          "207": -0.7091177105903625,
          "208": -0.6513035893440247,
          "209": -0.8081066608428955,
          "210": 0.5601716041564941,
          "211": -1.77847421169281,
          "212": 1.239492654800415,
          "213": 2.4284355640411377,
          "214": 0.8807911276817322,
          "215": 1.424638271331787,
          "216": -2.129383087158203,
          "217": 1.7214019298553467,
          "218": -0.16379685699939728,
          "219": 0.02166065387427807,
          "220": 2.8767426013946533,
          "221": -0.2937258780002594,
          "222": -0.9965150952339172,
          "223": 1.3463845252990723,
          "224": -0.1699790209531784,
          "225": 2.3461644649505615,
          "226": -1.4370615482330322,
          "227": -0.834665060043335,
          "228": 1.8524549007415771,
          "229": 0.4163079261779785,
          "230": -1.6359602212905884,
          "231": 0.35524195432662964,
          "232": -0.7859107255935669,
          "233": -1.826904535293579,
          "234": -1.778172492980957,
          "235": -0.7148456573486328,
          "236": 0.5145263671875,
          "237": -0.9560554623603821,
          "238": -0.21134671568870544,
          "239": -2.405643939971924,
          "240": -1.8862345218658447,
          "241": -1.9225746393203735,
          "242": 0.4158371090888977,
          "243": 0.2818397879600525,
          "244": -1.4651682376861572,
          "245": 1.8377442359924316,
          "246": -1.1021223068237305,
          "247": -0.32667475938796997,
          "248": 1.8369457721710205,
          "249": 1.6145488023757935,
          "250": -0.0062704491429030895,
          "251": 2.0052802562713623,
          "252": 0.42079541087150574,
          "253": 1.732047438621521,
          "254": 0.09202566742897034,
          "255": 1.0338666439056396,
          "256": -1.4253315925598145,
          "257": -1.3824362754821777,
          "258": -0.5149053931236267,
          "259": 1.6151738166809082,
          "260": 0.7046959400177002,
          "261": -2.4909961223602295,
          "262": -0.30303871631622314,
          "263": 0.11479222774505615,
          "264": -1.579026460647583,
          "265": -2.5180821418762207,
          "266": 1.6119111776351929,
          "267": -1.7844746112823486,
          "268": 3.6370675563812256,
          "269": 0.02807878889143467,
          "270": 1.9467335939407349,
          "271": 0.27506279945373535,
          "272": 1.6086621284484863,
          "273": -0.41898423433303833,
          "274": 0.7318487763404846,
          "275": -0.3178457021713257,
          "276": 0.16427958011627197,
          "277": 1.7996846437454224,
          "278": 0.03268732130527496,
          "279": 0.45991697907447815,
          "280": 1.7307099103927612,
          "281": -0.8192005753517151,
          "282": 0.7111027836799622,
          "283": 1.235398530960083,
          "284": -1.047641634941101,
          "285": -2.3720359802246094,
          "286": 1.245689868927002,
          "287": -0.9510555863380432,
          "288": -0.4346092939376831,
          "289": -2.189471960067749,
          "290": 0.33559611439704895,
          "291": 0.18123456835746765,
          "292": -1.140714406967163,
          "293": 1.4822518825531006,
          "294": -0.0916774794459343,
          "295": -0.4629021883010864,
          "296": -1.289711833000183,
          "297": -1.8716789484024048,
          "298": -0.21013523638248444,
          "299": 1.073349118232727,
          "300": -1.7583192586898804,
          "301": -1.1739506721496582,
          "302": -1.6368389129638672,
          "303": 0.06999874860048294,
          "304": -0.9420636892318726,
          "305": -0.3814587891101837,
          "306": -1.347977876663208,
          "307": 1.048288345336914,
          "308": 1.6056642532348633,
          "309": -0.7943434119224548,
          "310": 1.0873820781707764,
          "311": -1.1238991022109985,
          "312": 0.5003296732902527,
          "313": 0.6792681217193604,
          "314": -0.48856356739997864,
          "315": -1.0974394083023071,
          "316": 1.5386378765106201,
          "317": 0.14786094427108765,
          "318": 1.31120765209198,
          "319": 1.3137654066085815,
          "320": 1.1750632524490356,
          "321": 1.222496747970581,
          "322": 0.6384637355804443,
          "323": 0.3614697754383087,
          "324": 0.6361692547798157,
          "325": 1.9130420684814453,
          "326": 0.8775475025177002,
          "327": -0.25919774174690247,
          "328": -0.8198156356811523,
          "329": -0.09174388647079468,
          "330": -0.6885301470756531,
          "331": -1.585945963859558,
          "332": 0.10328123718500137,
          "333": 2.910163402557373,
          "334": -0.8564273118972778,
          "335": 0.3016658425331116,
          "336": 1.3311909437179565,
          "337": 0.2627926468849182,
          "338": -2.0076355934143066,
          "339": -0.6196098923683167,
          "340": 2.304548501968384,
          "341": -1.6105538606643677,
          "342": 3.155308246612549,
          "343": 0.6404149532318115,
          "344": 0.7375743985176086,
          "345": -0.1872885823249817,
          "346": -0.5739254951477051,
          "347": -4.061295032501221,
          "348": 0.32573193311691284,
          "349": -1.4630825519561768,
          "350": 2.1722419261932373,
          "351": 0.5487052202224731,
          "352": -1.3292210102081299,
          "353": -1.6415244340896606,
          "354": -0.9399672150611877,
          "355": 0.6548734307289124,
          "356": -0.8142432570457458,
          "357": 1.1875957250595093,
          "358": -4.190582275390625,
          "359": 0.1598571538925171,
          "360": -0.9648446440696716,
          "361": 2.1461644172668457,
          "362": 0.4127945005893707,
          "363": -0.10995873063802719,
          "364": -0.42366161942481995,
          "365": -0.7259710431098938,
          "366": -0.1777835190296173,
          "367": 0.8694191575050354,
          "368": -4.274533271789551,
          "369": -1.5953601598739624,
          "370": 2.188603639602661,
          "371": -0.19315595924854279,
          "372": 0.5217466354370117,
          "373": -0.47017374634742737,
          "374": 1.333574652671814,
          "375": 1.4887632131576538,
          "376": 0.48676958680152893,
          "377": -0.6880713701248169,
          "378": 0.4017983078956604,
          "379": -0.5479228496551514,
          "380": 0.004330231808125973,
          "381": 0.7801514267921448,
          "382": 0.5705680847167969,
          "383": -0.5708400011062622,
          "384": 0.31105905771255493,
          "385": 1.1087307929992676,
          "386": 0.43609410524368286,
          "387": 1.1418004035949707,
          "388": 0.751887321472168,
          "389": 0.15089298784732819,
          "390": -0.31580254435539246,
          "391": -0.6278034448623657,
          "392": 0.04688192903995514,
          "393": -0.919374942779541,
          "394": 0.6536234021186829,
          "395": 2.5157244205474854,
          "396": -0.04692986607551575,
          "397": -0.17394329607486725,
          "398": 2.3536479473114014,
          "399": 0.9610528945922852,
          "400": -3.2987477779388428,
          "401": 0.49372607469558716,
          "402": 3.13002872467041,
          "403": 1.381788969039917,
          "404": 0.3606932461261749,
          "405": -0.8860064148902893,
          "406": 1.2396289110183716,
          "407": 0.16016575694084167,
          "408": -0.5019046664237976,
          "409": 0.5849255323410034,
          "410": -1.2498490810394287,
          "411": 1.06271231174469,
          "412": -1.3531690835952759,
          "413": -0.9905428886413574,
          "414": 0.7014959454536438,
          "415": 0.3071063458919525,
          "416": -0.2726519703865051,
          "417": -0.04455668851733208,
          "418": -1.4645271301269531,
          "419": -2.6290152072906494,
          "420": -0.38005951046943665,
          "421": -0.3471570909023285,
          "422": 0.5513781309127808,
          "423": -1.8340051174163818,
          "424": 0.2415952831506729,
          "425": -3.6320409774780273,
          "426": -3.0509793758392334,
          "427": -2.053267478942871,
          "428": -0.7197096943855286,
          "429": -0.6827937960624695,
          "430": -0.6709796190261841,
          "431": 1.4303090572357178,
          "432": -0.3995302617549896,
          "433": -0.8630506992340088,
          "434": 1.195568561553955,
          "435": -0.8193274140357971,
          "436": 1.1947352886199951,
          "437": 0.35015159845352173,
          "438": 0.3822202980518341,
          "439": -2.603780746459961,
          "440": 0.29513809084892273,
          "441": -1.4275355339050293,
          "442": 2.0074188709259033,
          "443": 1.3351503610610962,
          "444": -1.108142375946045,
          "445": -1.0566424131393433,
          "446": 0.48267871141433716,
          "447": 1.393822193145752,
          "448": 0.6935213208198547,
          "449": 1.5452778339385986,
          "450": -1.228295922279358,
          "451": 0.251548707485199,
          "452": -1.289681077003479,
          "453": 0.9248822927474976,
          "454": -1.7895852327346802,
          "455": -0.8727781772613525,
          "456": -0.6822769641876221,
          "457": -0.06541356444358826,
          "458": -1.3064347505569458,
          "459": 1.1686351299285889,
          "460": -0.9798416495323181,
          "461": -0.8307482600212097,
          "462": 0.3198283016681671,
          "463": -0.5148953795433044,
          "464": 1.323581576347351,
          "465": 0.3637758791446686,
          "466": 0.24466414749622345,
          "467": -1.6238524913787842,
          "468": 2.7211530208587646,
          "469": -1.104043960571289,
          "470": -1.0017354488372803,
          "471": 0.4615255296230316,
          "472": 0.8356452584266663,
          "473": 2.041747570037842,
          "474": -0.8182691335678101,
          "475": 0.23356543481349945,
          "476": 0.44185465574264526,
          "477": 2.838351011276245,
          "478": -0.22090807557106018,
          "479": 1.3586426973342896,
          "480": -0.1333746463060379,
          "481": -0.38180044293403625,
          "482": -0.49399566650390625,
          "483": -1.1111067533493042,
          "484": 0.21497224271297455,
          "485": 0.9534381628036499,
          "486": -0.8557848930358887,
          "487": -2.1186203956604004,
          "488": -3.3417701721191406,
          "489": 1.1054471731185913,
          "490": 1.5929335355758667,
          "491": 0.4824356436729431,
          "492": 1.594414234161377,
          "493": 2.7512989044189453,
          "494": -0.38774460554122925,
          "495": -2.8285341262817383,
          "496": 2.8064491748809814,
          "497": -0.1161937564611435,
          "498": -0.15207695960998535,
          "499": -0.33274978399276733,
          "500": 1.820510983467102,
          "501": -1.8289837837219238,
          "502": -1.1514676809310913,
          "503": -1.98271644115448,
          "504": 1.5084145069122314,
          "505": -1.847434639930725,
          "506": 2.3723883628845215,
          "507": -2.1677560806274414,
          "508": 1.3590335845947266,
          "509": 0.553913414478302,
          "510": -0.7962660789489746,
          "511": 0.3072531819343567,
          "512": 2.7445294857025146,
          "513": -0.35070881247520447,
          "514": 0.3925299048423767,
          "515": 2.352118730545044,
          "516": -0.955269455909729,
          "517": 0.012712387368083,
          "518": -1.722317099571228,
          "519": -0.43526947498321533,
          "520": -3.3203015327453613,
          "521": -0.3564075827598572,
          "522": 1.2411937713623047,
          "523": -1.0314900875091553,
          "524": 0.5969545245170593,
          "525": -1.3757169246673584,
          "526": -0.010641145519912243,
          "527": 0.8504101037979126,
          "528": 3.278862237930298,
          "529": 2.431976079940796,
          "530": -1.014250636100769,
          "531": -1.9582723379135132,
          "532": -2.560123920440674,
          "533": 1.3637815713882446,
          "534": -2.733107805252075,
          "535": 0.12713803350925446,
          "536": 0.8417086005210876,
          "537": 0.10856375843286514,
          "538": -3.841620445251465,
          "539": -2.703443765640259,
          "540": 4.808404445648193,
          "541": -0.31392762064933777,
          "542": 2.861297130584717,
          "543": 0.6664825677871704,
          "544": 0.4666573405265808,
          "545": 0.9392082691192627,
          "546": 0.2060602307319641,
          "547": -2.0864343643188477,
          "548": 1.1314504146575928,
          "549": -1.6633960008621216,
          "550": -0.8506333231925964,
          "551": -2.052906036376953,
          "552": 0.14903517067432404,
          "553": 0.7886838912963867,
          "554": 0.2631213366985321,
          "555": 0.4814949333667755,
          "556": 0.5669952630996704,
          "557": 0.9902456402778625,
          "558": -1.0540369749069214,
          "559": -0.5566428899765015,
          "560": 0.34628522396087646,
          "561": -1.5740394592285156,
          "562": -1.0109187364578247,
          "563": 1.3237767219543457,
          "564": 0.5382452607154846,
          "565": 0.48154494166374207,
          "566": -0.050120700150728226,
          "567": -0.06282242387533188,
          "568": 1.297810673713684,
          "569": -1.1956672668457031,
          "570": -2.088641881942749,
          "571": -0.14454148709774017,
          "572": -1.457731008529663,
          "573": 0.9906212091445923,
          "574": 0.4988158047199249,
          "575": 0.5985986590385437,
          "576": 0.7724702954292297,
          "577": -0.8152429461479187,
          "578": -0.41926878690719604,
          "579": -0.805340588092804,
          "580": 0.42530518770217896,
          "581": 0.6047407388687134,
          "582": -0.721856951713562,
          "583": -0.6950271725654602,
          "584": 2.2756388187408447,
          "585": 1.3329317569732666,
          "586": -0.5406521558761597,
          "587": -0.31749245524406433,
          "588": 1.4551352262496948,
          "589": 2.843796730041504,
          "590": 0.9026092886924744,
          "591": 0.25948619842529297,
          "592": 1.1776049137115479,
          "593": -0.7541348338127136,
          "594": -1.3515934944152832,
          "595": -2.388293981552124,
          "596": -0.6844724416732788,
          "597": 0.1789856106042862,
          "598": -0.2960861325263977,
          "599": -0.42224299907684326,
          "600": 0.376365065574646,
          "601": 3.0446598529815674,
          "602": -0.43778562545776367,
          "603": -0.09497713297605515,
          "604": 1.411191463470459,
          "605": 2.44643497467041,
          "606": -1.0659255981445312,
          "607": -0.1965271234512329,
          "608": -1.1647917032241821,
          "609": -1.2445054054260254,
          "610": -0.37742123007774353,
          "611": -0.3502728044986725,
          "612": 0.12431860715150833,
          "613": -1.95191490650177,
          "614": 1.6521947383880615,
          "615": 1.914833664894104,
          "616": -0.869973361492157,
          "617": -0.9684765338897705,
          "618": -0.0764639601111412,
          "619": 2.009172201156616
        }
      },
      "forgetHidden": {
        "rows": 20,
        "columns": 20,
        "weights": {
          "0": 0.17941926419734955,
          "1": -1.7763439416885376,
          "2": 0.33394357562065125,
          "3": -4.663453102111816,
          "4": 1.597876787185669,
          "5": -0.49632519483566284,
          "6": 1.7393468618392944,
          "7": -0.7004485130310059,
          "8": 1.6743422746658325,
          "9": -0.31815800070762634,
          "10": 0.3258061707019806,
          "11": 6.761374473571777,
          "12": -0.830076277256012,
          "13": 0.954094409942627,
          "14": -0.11984817683696747,
          "15": 0.6205899715423584,
          "16": -0.6284639239311218,
          "17": 1.0618047714233398,
          "18": 0.6000486612319946,
          "19": 0.7193822264671326,
          "20": 0.2197657823562622,
          "21": -0.09572875499725342,
          "22": 0.9458436369895935,
          "23": 0.7102487683296204,
          "24": -0.47880688309669495,
          "25": -0.20503216981887817,
          "26": 1.3891799449920654,
          "27": 1.4322375059127808,
          "28": 1.6207119226455688,
          "29": 1.7194911241531372,
          "30": -0.1369589865207672,
          "31": 0.49880796670913696,
          "32": -0.8706718683242798,
          "33": 0.5248989462852478,
          "34": -0.46714723110198975,
          "35": 1.1780750751495361,
          "36": 0.5789109468460083,
          "37": -0.8371127247810364,
          "38": -0.3211734890937805,
          "39": -1.2223581075668335,
          "40": -0.08798442035913467,
          "41": 0.46458905935287476,
          "42": 0.4260648488998413,
          "43": 0.1639072149991989,
          "44": -0.04855851083993912,
          "45": 0.1674383282661438,
          "46": -0.335288405418396,
          "47": 0.4521043002605438,
          "48": 0.32436755299568176,
          "49": 0.17049890756607056,
